digraph Tree {
node [shape=box] ;
0 [label="X[1] <= -0.602\nmse = 3118.936\nsamples = 223\nvalue = 133.321"] ;
1 [label="X[1] <= -0.723\nmse = 949.408\nsamples = 58\nvalue = 212.758"] ;
0 -> 1 [labeldistance=2.5, labelangle=45, headlabel="True"] ;
2 [label="X[7] <= 1.005\nmse = 689.109\nsamples = 52\nvalue = 217.63"] ;
1 -> 2 ;
3 [label="X[6] <= 0.395\nmse = 598.32\nsamples = 33\nvalue = 209.251"] ;
2 -> 3 ;
4 [label="X[2] <= -0.636\nmse = 224.158\nsamples = 17\nvalue = 221.495"] ;
3 -> 4 ;
5 [label="X[2] <= -0.706\nmse = 46.504\nsamples = 7\nvalue = 209.405"] ;
4 -> 5 ;
6 [label="X[2] <= -0.905\nmse = 21.517\nsamples = 4\nvalue = 213.125"] ;
5 -> 6 ;
7 [label="mse = 0.0\nsamples = 1\nvalue = 205.667"] ;
6 -> 7 ;
8 [label="X[0] <= 0.296\nmse = 3.969\nsamples = 3\nvalue = 215.611"] ;
6 -> 8 ;
9 [label="X[5] <= -0.126\nmse = 0.84\nsamples = 2\nvalue = 216.916"] ;
8 -> 9 ;
10 [label="mse = 0.0\nsamples = 1\nvalue = 216.0"] ;
9 -> 10 ;
11 [label="mse = 0.0\nsamples = 1\nvalue = 217.833"] ;
9 -> 11 ;
12 [label="mse = -0.0\nsamples = 1\nvalue = 213.0"] ;
8 -> 12 ;
13 [label="X[4] <= -0.471\nmse = 36.764\nsamples = 3\nvalue = 204.445"] ;
5 -> 13 ;
14 [label="mse = 0.0\nsamples = 1\nvalue = 213.0"] ;
13 -> 14 ;
15 [label="X[1] <= -1.231\nmse = 0.25\nsamples = 2\nvalue = 200.167"] ;
13 -> 15 ;
16 [label="mse = 0.0\nsamples = 1\nvalue = 200.667"] ;
15 -> 16 ;
17 [label="mse = 0.0\nsamples = 1\nvalue = 199.667"] ;
15 -> 17 ;
18 [label="X[5] <= 0.44\nmse = 174.572\nsamples = 10\nvalue = 229.958"] ;
4 -> 18 ;
19 [label="X[6] <= -0.302\nmse = 102.315\nsamples = 8\nvalue = 234.771"] ;
18 -> 19 ;
20 [label="mse = 0.0\nsamples = 1\nvalue = 258.333"] ;
19 -> 20 ;
21 [label="X[7] <= -0.157\nmse = 26.289\nsamples = 7\nvalue = 231.405"] ;
19 -> 21 ;
22 [label="X[8] <= -0.247\nmse = 5.062\nsamples = 2\nvalue = 225.583"] ;
21 -> 22 ;
23 [label="mse = 0.0\nsamples = 1\nvalue = 223.333"] ;
22 -> 23 ;
24 [label="mse = 0.0\nsamples = 1\nvalue = 227.833"] ;
22 -> 24 ;
25 [label="X[1] <= -1.757\nmse = 15.801\nsamples = 5\nvalue = 233.733"] ;
21 -> 25 ;
26 [label="X[4] <= -0.313\nmse = 0.293\nsamples = 2\nvalue = 229.541"] ;
25 -> 26 ;
27 [label="mse = 0.0\nsamples = 1\nvalue = 229.0"] ;
26 -> 27 ;
28 [label="mse = 0.0\nsamples = 1\nvalue = 230.083"] ;
26 -> 28 ;
29 [label="X[5] <= 0.092\nmse = 6.617\nsamples = 3\nvalue = 236.528"] ;
25 -> 29 ;
30 [label="mse = 0.0\nsamples = 1\nvalue = 240.083"] ;
29 -> 30 ;
31 [label="X[5] <= 0.354\nmse = 0.445\nsamples = 2\nvalue = 234.75"] ;
29 -> 31 ;
32 [label="mse = 0.0\nsamples = 1\nvalue = 235.417"] ;
31 -> 32 ;
33 [label="mse = 0.0\nsamples = 1\nvalue = 234.083"] ;
31 -> 33 ;
34 [label="X[5] <= 0.57\nmse = 0.391\nsamples = 2\nvalue = 210.708"] ;
18 -> 34 ;
35 [label="mse = 0.0\nsamples = 1\nvalue = 210.083"] ;
34 -> 35 ;
36 [label="mse = 0.0\nsamples = 1\nvalue = 211.333"] ;
34 -> 36 ;
37 [label="X[4] <= 2.441\nmse = 667.318\nsamples = 16\nvalue = 196.241"] ;
3 -> 37 ;
38 [label="X[1] <= -1.798\nmse = 379.67\nsamples = 15\nvalue = 191.685"] ;
37 -> 38 ;
39 [label="X[0] <= -0.81\nmse = 28.506\nsamples = 3\nvalue = 169.211"] ;
38 -> 39 ;
40 [label="X[1] <= -1.931\nmse = 1.562\nsamples = 2\nvalue = 172.917"] ;
39 -> 40 ;
41 [label="mse = 0.0\nsamples = 1\nvalue = 174.167"] ;
40 -> 41 ;
42 [label="mse = 0.0\nsamples = 1\nvalue = 171.667"] ;
40 -> 42 ;
43 [label="mse = -0.0\nsamples = 1\nvalue = 161.8"] ;
39 -> 43 ;
44 [label="X[4] <= 0.809\nmse = 309.633\nsamples = 12\nvalue = 197.303"] ;
38 -> 44 ;
45 [label="X[5] <= 0.156\nmse = 64.493\nsamples = 4\nvalue = 176.443"] ;
44 -> 45 ;
46 [label="mse = 0.0\nsamples = 1\nvalue = 162.855"] ;
45 -> 46 ;
47 [label="X[1] <= -1.315\nmse = 3.932\nsamples = 3\nvalue = 180.972"] ;
45 -> 47 ;
48 [label="X[5] <= 0.857\nmse = 1.0\nsamples = 2\nvalue = 182.25"] ;
47 -> 48 ;
49 [label="mse = 0.0\nsamples = 1\nvalue = 181.25"] ;
48 -> 49 ;
50 [label="mse = 0.0\nsamples = 1\nvalue = 183.25"] ;
48 -> 50 ;
51 [label="mse = -0.0\nsamples = 1\nvalue = 178.417"] ;
47 -> 51 ;
52 [label="X[5] <= 1.081\nmse = 105.848\nsamples = 8\nvalue = 207.733"] ;
44 -> 52 ;
53 [label="X[6] <= 0.991\nmse = 86.633\nsamples = 4\nvalue = 214.424"] ;
52 -> 53 ;
54 [label="X[8] <= 0.276\nmse = 23.358\nsamples = 2\nvalue = 206.5"] ;
53 -> 54 ;
55 [label="mse = 0.0\nsamples = 1\nvalue = 211.333"] ;
54 -> 55 ;
56 [label="mse = 0.0\nsamples = 1\nvalue = 201.667"] ;
54 -> 56 ;
57 [label="X[0] <= 0.873\nmse = 24.32\nsamples = 2\nvalue = 222.348"] ;
53 -> 57 ;
58 [label="mse = 0.0\nsamples = 1\nvalue = 227.28"] ;
57 -> 58 ;
59 [label="mse = -0.0\nsamples = 1\nvalue = 217.417"] ;
57 -> 59 ;
60 [label="X[6] <= 1.651\nmse = 35.518\nsamples = 4\nvalue = 201.042"] ;
52 -> 60 ;
61 [label="X[5] <= 1.253\nmse = 5.839\nsamples = 2\nvalue = 195.334"] ;
60 -> 61 ;
62 [label="mse = 0.0\nsamples = 1\nvalue = 197.75"] ;
61 -> 62 ;
63 [label="mse = 0.0\nsamples = 1\nvalue = 192.917"] ;
61 -> 63 ;
64 [label="X[2] <= 0.237\nmse = 0.028\nsamples = 2\nvalue = 206.75"] ;
60 -> 64 ;
65 [label="mse = 0.0\nsamples = 1\nvalue = 206.917"] ;
64 -> 65 ;
66 [label="mse = 0.0\nsamples = 1\nvalue = 206.583"] ;
64 -> 66 ;
67 [label="mse = 0.0\nsamples = 1\nvalue = 264.583"] ;
37 -> 67 ;
68 [label="X[8] <= 0.894\nmse = 513.04\nsamples = 19\nvalue = 232.183"] ;
2 -> 68 ;
69 [label="mse = 0.0\nsamples = 1\nvalue = 178.667"] ;
68 -> 69 ;
70 [label="X[1] <= -2.371\nmse = 373.592\nsamples = 18\nvalue = 235.156"] ;
68 -> 70 ;
71 [label="X[6] <= 1.252\nmse = 2.546\nsamples = 3\nvalue = 256.994"] ;
70 -> 71 ;
72 [label="mse = 0.0\nsamples = 1\nvalue = 259.083"] ;
71 -> 72 ;
73 [label="X[3] <= 0.019\nmse = 0.548\nsamples = 2\nvalue = 255.95"] ;
71 -> 73 ;
74 [label="mse = 0.0\nsamples = 1\nvalue = 256.69"] ;
73 -> 74 ;
75 [label="mse = 0.0\nsamples = 1\nvalue = 255.21"] ;
73 -> 75 ;
76 [label="X[6] <= 2.502\nmse = 333.347\nsamples = 15\nvalue = 230.789"] ;
70 -> 76 ;
77 [label="X[4] <= -0.402\nmse = 216.494\nsamples = 14\nvalue = 233.851"] ;
76 -> 77 ;
78 [label="mse = 0.0\nsamples = 1\nvalue = 265.75"] ;
77 -> 78 ;
79 [label="X[5] <= 0.4\nmse = 148.855\nsamples = 13\nvalue = 231.397"] ;
77 -> 79 ;
80 [label="X[2] <= -0.638\nmse = 92.345\nsamples = 7\nvalue = 223.679"] ;
79 -> 80 ;
81 [label="X[2] <= -1.009\nmse = 16.401\nsamples = 4\nvalue = 216.896"] ;
80 -> 81 ;
82 [label="mse = 0.0\nsamples = 1\nvalue = 210.5"] ;
81 -> 82 ;
83 [label="X[3] <= -1.052\nmse = 3.687\nsamples = 3\nvalue = 219.028"] ;
81 -> 83 ;
84 [label="mse = 0.0\nsamples = 1\nvalue = 216.333"] ;
83 -> 84 ;
85 [label="X[5] <= 0.085\nmse = 0.085\nsamples = 2\nvalue = 220.375"] ;
83 -> 85 ;
86 [label="mse = 0.0\nsamples = 1\nvalue = 220.083"] ;
85 -> 86 ;
87 [label="mse = 0.0\nsamples = 1\nvalue = 220.667"] ;
85 -> 87 ;
88 [label="X[6] <= 0.166\nmse = 50.473\nsamples = 3\nvalue = 232.722"] ;
80 -> 88 ;
89 [label="X[4] <= -0.155\nmse = 0.293\nsamples = 2\nvalue = 227.709"] ;
88 -> 89 ;
90 [label="mse = 0.0\nsamples = 1\nvalue = 228.25"] ;
89 -> 90 ;
91 [label="mse = -0.0\nsamples = 1\nvalue = 227.167"] ;
89 -> 91 ;
92 [label="mse = -0.0\nsamples = 1\nvalue = 242.75"] ;
88 -> 92 ;
93 [label="X[1] <= -2.046\nmse = 64.175\nsamples = 6\nvalue = 240.403"] ;
79 -> 93 ;
94 [label="X[6] <= 1.363\nmse = 2.641\nsamples = 2\nvalue = 231.125"] ;
93 -> 94 ;
95 [label="mse = 0.0\nsamples = 1\nvalue = 229.5"] ;
94 -> 95 ;
96 [label="mse = 0.0\nsamples = 1\nvalue = 232.75"] ;
94 -> 96 ;
97 [label="X[2] <= -0.616\nmse = 30.383\nsamples = 4\nvalue = 245.042"] ;
93 -> 97 ;
98 [label="X[7] <= 1.48\nmse = 9.339\nsamples = 3\nvalue = 247.833"] ;
97 -> 98 ;
99 [label="mse = 0.0\nsamples = 1\nvalue = 243.833"] ;
98 -> 99 ;
100 [label="X[2] <= -0.94\nmse = 2.006\nsamples = 2\nvalue = 249.834"] ;
98 -> 100 ;
101 [label="mse = 0.0\nsamples = 1\nvalue = 251.25"] ;
100 -> 101 ;
102 [label="mse = -0.0\nsamples = 1\nvalue = 248.417"] ;
100 -> 102 ;
103 [label="mse = -0.0\nsamples = 1\nvalue = 236.667"] ;
97 -> 103 ;
104 [label="mse = 0.0\nsamples = 1\nvalue = 187.917"] ;
76 -> 104 ;
105 [label="X[7] <= 1.166\nmse = 1216.529\nsamples = 6\nvalue = 170.531"] ;
1 -> 105 ;
106 [label="X[0] <= -0.728\nmse = 282.094\nsamples = 5\nvalue = 156.521"] ;
105 -> 106 ;
107 [label="mse = 0.0\nsamples = 1\nvalue = 126.999"] ;
106 -> 107 ;
108 [label="X[0] <= 0.743\nmse = 80.265\nsamples = 4\nvalue = 163.901"] ;
106 -> 108 ;
109 [label="X[2] <= 0.004\nmse = 0.181\nsamples = 2\nvalue = 172.742"] ;
108 -> 109 ;
110 [label="mse = 0.0\nsamples = 1\nvalue = 172.316"] ;
109 -> 110 ;
111 [label="mse = 0.0\nsamples = 1\nvalue = 173.167"] ;
109 -> 111 ;
112 [label="X[8] <= 1.544\nmse = 4.043\nsamples = 2\nvalue = 155.061"] ;
108 -> 112 ;
113 [label="mse = 0.0\nsamples = 1\nvalue = 153.05"] ;
112 -> 113 ;
114 [label="mse = 0.0\nsamples = 1\nvalue = 157.072"] ;
112 -> 114 ;
115 [label="mse = -0.0\nsamples = 1\nvalue = 240.583"] ;
105 -> 115 ;
116 [label="X[1] <= 0.376\nmse = 883.707\nsamples = 165\nvalue = 105.397"] ;
0 -> 116 [labeldistance=2.5, labelangle=-45, headlabel="False"] ;
117 [label="X[5] <= 0.82\nmse = 649.721\nsamples = 47\nvalue = 137.654"] ;
116 -> 117 ;
118 [label="X[1] <= 0.031\nmse = 358.027\nsamples = 37\nvalue = 129.371"] ;
117 -> 118 ;
119 [label="X[4] <= -0.058\nmse = 315.271\nsamples = 13\nvalue = 146.097"] ;
118 -> 119 ;
120 [label="X[1] <= -0.248\nmse = 28.654\nsamples = 7\nvalue = 134.707"] ;
119 -> 120 ;
121 [label="X[3] <= -0.447\nmse = 31.052\nsamples = 2\nvalue = 127.821"] ;
120 -> 121 ;
122 [label="mse = 0.0\nsamples = 1\nvalue = 133.394"] ;
121 -> 122 ;
123 [label="mse = 0.0\nsamples = 1\nvalue = 122.249"] ;
121 -> 123 ;
124 [label="X[1] <= -0.09\nmse = 1.142\nsamples = 5\nvalue = 137.462"] ;
120 -> 124 ;
125 [label="X[3] <= -0.69\nmse = 0.161\nsamples = 3\nvalue = 138.296"] ;
124 -> 125 ;
126 [label="X[4] <= -0.58\nmse = 0.037\nsamples = 2\nvalue = 138.558"] ;
125 -> 126 ;
127 [label="mse = 0.0\nsamples = 1\nvalue = 138.751"] ;
126 -> 127 ;
128 [label="mse = 0.0\nsamples = 1\nvalue = 138.364"] ;
126 -> 128 ;
129 [label="mse = -0.0\nsamples = 1\nvalue = 137.774"] ;
125 -> 129 ;
130 [label="mse = -0.0\nsamples = 2\nvalue = 136.21"] ;
124 -> 130 ;
131 [label="X[7] <= 0.551\nmse = 321.736\nsamples = 6\nvalue = 159.385"] ;
119 -> 131 ;
132 [label="X[4] <= 0.298\nmse = 3.378\nsamples = 3\nvalue = 142.318"] ;
131 -> 132 ;
133 [label="X[2] <= -0.013\nmse = 0.0\nsamples = 2\nvalue = 141.018"] ;
132 -> 133 ;
134 [label="mse = 0.0\nsamples = 1\nvalue = 141.037"] ;
133 -> 134 ;
135 [label="mse = 0.0\nsamples = 1\nvalue = 141.0"] ;
133 -> 135 ;
136 [label="mse = -0.0\nsamples = 1\nvalue = 144.917"] ;
132 -> 136 ;
137 [label="X[2] <= -0.435\nmse = 57.498\nsamples = 3\nvalue = 176.453"] ;
131 -> 137 ;
138 [label="mse = 0.0\nsamples = 1\nvalue = 186.99"] ;
137 -> 138 ;
139 [label="X[4] <= 0.302\nmse = 2.973\nsamples = 2\nvalue = 171.184"] ;
137 -> 139 ;
140 [label="mse = 0.0\nsamples = 1\nvalue = 172.908"] ;
139 -> 140 ;
141 [label="mse = -0.0\nsamples = 1\nvalue = 169.46"] ;
139 -> 141 ;
142 [label="X[2] <= -0.914\nmse = 147.56\nsamples = 24\nvalue = 120.311"] ;
118 -> 142 ;
143 [label="mse = 0.0\nsamples = 1\nvalue = 145.174"] ;
142 -> 143 ;
144 [label="X[2] <= -0.321\nmse = 125.93\nsamples = 23\nvalue = 119.23"] ;
142 -> 144 ;
145 [label="X[1] <= 0.264\nmse = 10.512\nsamples = 14\nvalue = 115.272"] ;
144 -> 145 ;
146 [label="X[0] <= 0.025\nmse = 4.312\nsamples = 9\nvalue = 117.053"] ;
145 -> 146 ;
147 [label="X[5] <= -0.772\nmse = 2.773\nsamples = 8\nvalue = 117.534"] ;
146 -> 147 ;
148 [label="X[6] <= -0.562\nmse = 0.007\nsamples = 2\nvalue = 115.184"] ;
147 -> 148 ;
149 [label="mse = 0.0\nsamples = 1\nvalue = 115.103"] ;
148 -> 149 ;
150 [label="mse = -0.0\nsamples = 1\nvalue = 115.266"] ;
148 -> 150 ;
151 [label="X[3] <= -0.932\nmse = 1.241\nsamples = 6\nvalue = 118.317"] ;
147 -> 151 ;
152 [label="X[1] <= 0.131\nmse = 0.141\nsamples = 3\nvalue = 119.318"] ;
151 -> 152 ;
153 [label="mse = 0.0\nsamples = 1\nvalue = 118.788"] ;
152 -> 153 ;
154 [label="X[7] <= 0.452\nmse = 0.0\nsamples = 2\nvalue = 119.583"] ;
152 -> 154 ;
155 [label="mse = 0.0\nsamples = 1\nvalue = 119.564"] ;
154 -> 155 ;
156 [label="mse = 0.0\nsamples = 1\nvalue = 119.602"] ;
154 -> 156 ;
157 [label="X[3] <= -0.6\nmse = 0.338\nsamples = 3\nvalue = 117.316"] ;
151 -> 157 ;
158 [label="mse = 0.0\nsamples = 2\nvalue = 116.905"] ;
157 -> 158 ;
159 [label="mse = -0.0\nsamples = 1\nvalue = 118.138"] ;
157 -> 159 ;
160 [label="mse = 0.0\nsamples = 1\nvalue = 113.209"] ;
146 -> 160 ;
161 [label="X[0] <= -0.613\nmse = 5.688\nsamples = 5\nvalue = 112.067"] ;
145 -> 161 ;
162 [label="mse = 0.0\nsamples = 1\nvalue = 108.248"] ;
161 -> 162 ;
163 [label="X[2] <= -0.832\nmse = 2.553\nsamples = 4\nvalue = 113.021"] ;
161 -> 163 ;
164 [label="mse = 0.0\nsamples = 1\nvalue = 115.7"] ;
163 -> 164 ;
165 [label="X[1] <= 0.298\nmse = 0.215\nsamples = 3\nvalue = 112.129"] ;
163 -> 165 ;
166 [label="X[6] <= -0.095\nmse = 0.0\nsamples = 2\nvalue = 111.801"] ;
165 -> 166 ;
167 [label="mse = 0.0\nsamples = 1\nvalue = 111.805"] ;
166 -> 167 ;
168 [label="mse = 0.0\nsamples = 1\nvalue = 111.797"] ;
166 -> 168 ;
169 [label="mse = 0.0\nsamples = 1\nvalue = 112.784"] ;
165 -> 169 ;
170 [label="X[8] <= 0.091\nmse = 243.209\nsamples = 9\nvalue = 125.386"] ;
144 -> 170 ;
171 [label="X[2] <= 0.724\nmse = 99.231\nsamples = 8\nvalue = 120.984"] ;
170 -> 171 ;
172 [label="X[0] <= 0.391\nmse = 23.414\nsamples = 6\nvalue = 125.918"] ;
171 -> 172 ;
173 [label="X[6] <= 0.374\nmse = 6.428\nsamples = 3\nvalue = 121.6"] ;
172 -> 173 ;
174 [label="X[0] <= -0.566\nmse = 0.653\nsamples = 2\nvalue = 123.331"] ;
173 -> 174 ;
175 [label="mse = 0.0\nsamples = 1\nvalue = 122.523"] ;
174 -> 175 ;
176 [label="mse = 0.0\nsamples = 1\nvalue = 124.139"] ;
174 -> 176 ;
177 [label="mse = -0.0\nsamples = 1\nvalue = 118.138"] ;
173 -> 177 ;
178 [label="X[6] <= -0.683\nmse = 3.119\nsamples = 3\nvalue = 130.235"] ;
172 -> 178 ;
179 [label="mse = 0.0\nsamples = 1\nvalue = 128.3"] ;
178 -> 179 ;
180 [label="X[1] <= 0.345\nmse = 1.87\nsamples = 2\nvalue = 131.202"] ;
178 -> 180 ;
181 [label="mse = 0.0\nsamples = 1\nvalue = 132.57"] ;
180 -> 181 ;
182 [label="mse = 0.0\nsamples = 1\nvalue = 129.835"] ;
180 -> 182 ;
183 [label="X[0] <= -0.351\nmse = 34.621\nsamples = 2\nvalue = 106.184"] ;
171 -> 183 ;
184 [label="mse = 0.0\nsamples = 1\nvalue = 112.068"] ;
183 -> 184 ;
185 [label="mse = 0.0\nsamples = 1\nvalue = 100.3"] ;
183 -> 185 ;
186 [label="mse = 0.0\nsamples = 1\nvalue = 160.6"] ;
170 -> 186 ;
187 [label="X[0] <= 0.151\nmse = 535.889\nsamples = 10\nvalue = 168.301"] ;
117 -> 187 ;
188 [label="X[6] <= 1.37\nmse = 53.701\nsamples = 7\nvalue = 180.827"] ;
187 -> 188 ;
189 [label="X[5] <= 1.193\nmse = 23.69\nsamples = 5\nvalue = 177.304"] ;
188 -> 189 ;
190 [label="X[6] <= 1.152\nmse = 9.372\nsamples = 3\nvalue = 180.572"] ;
189 -> 190 ;
191 [label="X[1] <= -0.246\nmse = 1.624\nsamples = 2\nvalue = 182.608"] ;
190 -> 191 ;
192 [label="mse = 0.0\nsamples = 1\nvalue = 181.333"] ;
191 -> 192 ;
193 [label="mse = -0.0\nsamples = 1\nvalue = 183.882"] ;
191 -> 193 ;
194 [label="mse = 0.0\nsamples = 1\nvalue = 176.5"] ;
190 -> 194 ;
195 [label="X[0] <= -0.297\nmse = 5.127\nsamples = 2\nvalue = 172.403"] ;
189 -> 195 ;
196 [label="mse = 0.0\nsamples = 1\nvalue = 174.667"] ;
195 -> 196 ;
197 [label="mse = -0.0\nsamples = 1\nvalue = 170.138"] ;
195 -> 197 ;
198 [label="X[0] <= -0.627\nmse = 20.111\nsamples = 2\nvalue = 189.636"] ;
188 -> 198 ;
199 [label="mse = 0.0\nsamples = 1\nvalue = 185.151"] ;
198 -> 199 ;
200 [label="mse = 0.0\nsamples = 1\nvalue = 194.12"] ;
198 -> 200 ;
201 [label="X[0] <= 1.038\nmse = 440.624\nsamples = 3\nvalue = 139.073"] ;
187 -> 201 ;
202 [label="X[2] <= 0.595\nmse = 133.117\nsamples = 2\nvalue = 152.338"] ;
201 -> 202 ;
203 [label="mse = 0.0\nsamples = 1\nvalue = 163.875"] ;
202 -> 203 ;
204 [label="mse = 0.0\nsamples = 1\nvalue = 140.8"] ;
202 -> 204 ;
205 [label="mse = -0.0\nsamples = 1\nvalue = 112.545"] ;
201 -> 205 ;
206 [label="X[1] <= 0.824\nmse = 397.4\nsamples = 118\nvalue = 92.549"] ;
116 -> 206 ;
207 [label="X[7] <= 0.166\nmse = 395.203\nsamples = 87\nvalue = 97.919"] ;
206 -> 207 ;
208 [label="X[0] <= 0.437\nmse = 233.463\nsamples = 77\nvalue = 94.761"] ;
207 -> 208 ;
209 [label="X[7] <= -0.606\nmse = 134.502\nsamples = 58\nvalue = 89.468"] ;
208 -> 209 ;
210 [label="X[0] <= -0.393\nmse = 56.276\nsamples = 28\nvalue = 83.387"] ;
209 -> 210 ;
211 [label="X[3] <= -0.485\nmse = 31.691\nsamples = 17\nvalue = 79.422"] ;
210 -> 211 ;
212 [label="mse = 0.0\nsamples = 1\nvalue = 94.689"] ;
211 -> 212 ;
213 [label="X[4] <= 0.353\nmse = 18.194\nsamples = 16\nvalue = 78.468"] ;
211 -> 213 ;
214 [label="X[0] <= -1.377\nmse = 15.332\nsamples = 14\nvalue = 77.659"] ;
213 -> 214 ;
215 [label="mse = 0.0\nsamples = 1\nvalue = 86.261"] ;
214 -> 215 ;
216 [label="X[3] <= -0.462\nmse = 10.383\nsamples = 13\nvalue = 76.998"] ;
214 -> 216 ;
217 [label="X[5] <= -0.939\nmse = 3.808\nsamples = 2\nvalue = 81.752"] ;
216 -> 217 ;
218 [label="mse = 0.0\nsamples = 1\nvalue = 83.703"] ;
217 -> 218 ;
219 [label="mse = 0.0\nsamples = 1\nvalue = 79.8"] ;
217 -> 219 ;
220 [label="X[2] <= 0.823\nmse = 6.722\nsamples = 11\nvalue = 76.133"] ;
216 -> 220 ;
221 [label="X[3] <= -0.142\nmse = 4.911\nsamples = 10\nvalue = 76.608"] ;
220 -> 221 ;
222 [label="X[0] <= -0.466\nmse = 4.666\nsamples = 6\nvalue = 75.477"] ;
221 -> 222 ;
223 [label="X[1] <= 0.807\nmse = 1.574\nsamples = 5\nvalue = 76.296"] ;
222 -> 223 ;
224 [label="X[4] <= -0.947\nmse = 0.609\nsamples = 4\nvalue = 75.775"] ;
223 -> 224 ;
225 [label="mse = 0.0\nsamples = 1\nvalue = 74.448"] ;
224 -> 225 ;
226 [label="X[0] <= -0.494\nmse = 0.029\nsamples = 3\nvalue = 76.217"] ;
224 -> 226 ;
227 [label="X[0] <= -0.678\nmse = 0.001\nsamples = 2\nvalue = 76.337"] ;
226 -> 227 ;
228 [label="mse = 0.0\nsamples = 1\nvalue = 76.361"] ;
227 -> 228 ;
229 [label="mse = 0.0\nsamples = 1\nvalue = 76.313"] ;
227 -> 229 ;
230 [label="mse = -0.0\nsamples = 1\nvalue = 75.978"] ;
226 -> 230 ;
231 [label="mse = 0.0\nsamples = 1\nvalue = 78.382"] ;
223 -> 231 ;
232 [label="mse = 0.0\nsamples = 1\nvalue = 71.382"] ;
222 -> 232 ;
233 [label="X[7] <= -1.032\nmse = 0.479\nsamples = 4\nvalue = 78.305"] ;
221 -> 233 ;
234 [label="mse = 0.0\nsamples = 1\nvalue = 77.339"] ;
233 -> 234 ;
235 [label="X[7] <= -0.731\nmse = 0.223\nsamples = 3\nvalue = 78.627"] ;
233 -> 235 ;
236 [label="X[3] <= 0.481\nmse = 0.068\nsamples = 2\nvalue = 78.329"] ;
235 -> 236 ;
237 [label="mse = 0.0\nsamples = 1\nvalue = 78.589"] ;
236 -> 237 ;
238 [label="mse = -0.0\nsamples = 1\nvalue = 78.069"] ;
236 -> 238 ;
239 [label="mse = 0.0\nsamples = 1\nvalue = 79.224"] ;
235 -> 239 ;
240 [label="mse = -0.0\nsamples = 1\nvalue = 71.382"] ;
220 -> 240 ;
241 [label="X[8] <= -0.849\nmse = 1.619\nsamples = 2\nvalue = 84.128"] ;
213 -> 241 ;
242 [label="mse = 0.0\nsamples = 1\nvalue = 82.855"] ;
241 -> 242 ;
243 [label="mse = 0.0\nsamples = 1\nvalue = 85.4"] ;
241 -> 243 ;
244 [label="X[4] <= -0.759\nmse = 32.427\nsamples = 11\nvalue = 89.515"] ;
210 -> 244 ;
245 [label="X[1] <= 0.637\nmse = 14.873\nsamples = 7\nvalue = 86.087"] ;
244 -> 245 ;
246 [label="X[1] <= 0.588\nmse = 5.786\nsamples = 3\nvalue = 89.698"] ;
245 -> 246 ;
247 [label="X[3] <= -0.303\nmse = 0.072\nsamples = 2\nvalue = 88.004"] ;
246 -> 247 ;
248 [label="mse = 0.0\nsamples = 1\nvalue = 87.737"] ;
247 -> 248 ;
249 [label="mse = -0.0\nsamples = 1\nvalue = 88.272"] ;
247 -> 249 ;
250 [label="mse = -0.0\nsamples = 1\nvalue = 93.086"] ;
246 -> 250 ;
251 [label="X[6] <= -0.7\nmse = 4.573\nsamples = 4\nvalue = 83.379"] ;
245 -> 251 ;
252 [label="X[8] <= -1.008\nmse = 0.878\nsamples = 3\nvalue = 84.521"] ;
251 -> 252 ;
253 [label="mse = 0.0\nsamples = 1\nvalue = 83.196"] ;
252 -> 253 ;
254 [label="mse = -0.0\nsamples = 2\nvalue = 85.184"] ;
252 -> 254 ;
255 [label="mse = 0.0\nsamples = 1\nvalue = 79.952"] ;
251 -> 255 ;
256 [label="X[8] <= -0.889\nmse = 6.617\nsamples = 4\nvalue = 95.512"] ;
244 -> 256 ;
257 [label="X[8] <= -1.041\nmse = 0.434\nsamples = 2\nvalue = 98.038"] ;
256 -> 257 ;
258 [label="mse = 0.0\nsamples = 1\nvalue = 97.38"] ;
257 -> 258 ;
259 [label="mse = -0.0\nsamples = 1\nvalue = 98.697"] ;
257 -> 259 ;
260 [label="X[3] <= -0.084\nmse = 0.038\nsamples = 2\nvalue = 92.986"] ;
256 -> 260 ;
261 [label="mse = 0.0\nsamples = 1\nvalue = 93.182"] ;
260 -> 261 ;
262 [label="mse = -0.0\nsamples = 1\nvalue = 92.791"] ;
260 -> 262 ;
263 [label="X[1] <= 0.795\nmse = 140.785\nsamples = 30\nvalue = 95.144"] ;
209 -> 263 ;
264 [label="X[1] <= 0.659\nmse = 65.669\nsamples = 28\nvalue = 92.892"] ;
263 -> 264 ;
265 [label="X[2] <= -0.728\nmse = 41.797\nsamples = 13\nvalue = 97.408"] ;
264 -> 265 ;
266 [label="mse = 0.0\nsamples = 1\nvalue = 109.375"] ;
265 -> 266 ;
267 [label="X[0] <= -0.324\nmse = 32.35\nsamples = 12\nvalue = 96.411"] ;
265 -> 267 ;
268 [label="X[8] <= -0.056\nmse = 24.333\nsamples = 9\nvalue = 94.374"] ;
267 -> 268 ;
269 [label="X[8] <= -0.274\nmse = 10.59\nsamples = 7\nvalue = 92.308"] ;
268 -> 269 ;
270 [label="X[1] <= 0.574\nmse = 0.7\nsamples = 2\nvalue = 87.66"] ;
269 -> 270 ;
271 [label="mse = 0.0\nsamples = 1\nvalue = 86.823"] ;
270 -> 271 ;
272 [label="mse = -0.0\nsamples = 1\nvalue = 88.497"] ;
270 -> 272 ;
273 [label="X[1] <= 0.456\nmse = 2.446\nsamples = 5\nvalue = 94.168"] ;
269 -> 273 ;
274 [label="X[0] <= -1.199\nmse = 0.353\nsamples = 2\nvalue = 95.887"] ;
273 -> 274 ;
275 [label="mse = 0.0\nsamples = 1\nvalue = 96.481"] ;
274 -> 275 ;
276 [label="mse = 0.0\nsamples = 1\nvalue = 95.293"] ;
274 -> 276 ;
277 [label="X[4] <= -0.525\nmse = 0.557\nsamples = 3\nvalue = 93.022"] ;
273 -> 277 ;
278 [label="mse = 0.0\nsamples = 1\nvalue = 93.98"] ;
277 -> 278 ;
279 [label="X[2] <= -0.321\nmse = 0.146\nsamples = 2\nvalue = 92.543"] ;
277 -> 279 ;
280 [label="mse = 0.0\nsamples = 1\nvalue = 92.925"] ;
279 -> 280 ;
281 [label="mse = -0.0\nsamples = 1\nvalue = 92.16"] ;
279 -> 281 ;
282 [label="X[1] <= 0.476\nmse = 5.206\nsamples = 2\nvalue = 101.605"] ;
268 -> 282 ;
283 [label="mse = 0.0\nsamples = 1\nvalue = 99.324"] ;
282 -> 283 ;
284 [label="mse = -0.0\nsamples = 1\nvalue = 103.887"] ;
282 -> 284 ;
285 [label="X[1] <= 0.648\nmse = 6.641\nsamples = 3\nvalue = 102.52"] ;
267 -> 285 ;
286 [label="X[1] <= 0.531\nmse = 0.273\nsamples = 2\nvalue = 100.723"] ;
285 -> 286 ;
287 [label="mse = 0.0\nsamples = 1\nvalue = 101.246"] ;
286 -> 287 ;
288 [label="mse = 0.0\nsamples = 1\nvalue = 100.2"] ;
286 -> 288 ;
289 [label="mse = 0.0\nsamples = 1\nvalue = 106.114"] ;
285 -> 289 ;
290 [label="X[7] <= -0.256\nmse = 53.359\nsamples = 15\nvalue = 88.977"] ;
264 -> 290 ;
291 [label="X[1] <= 0.687\nmse = 44.485\nsamples = 6\nvalue = 93.273"] ;
290 -> 291 ;
292 [label="mse = 0.0\nsamples = 1\nvalue = 103.478"] ;
291 -> 292 ;
293 [label="X[5] <= -0.939\nmse = 28.386\nsamples = 5\nvalue = 91.232"] ;
291 -> 293 ;
294 [label="mse = 0.0\nsamples = 1\nvalue = 101.109"] ;
293 -> 294 ;
295 [label="X[0] <= -0.494\nmse = 4.993\nsamples = 4\nvalue = 88.762"] ;
293 -> 295 ;
296 [label="X[4] <= 0.489\nmse = 0.631\nsamples = 2\nvalue = 90.796"] ;
295 -> 296 ;
297 [label="mse = 0.0\nsamples = 1\nvalue = 90.002"] ;
296 -> 297 ;
298 [label="mse = 0.0\nsamples = 1\nvalue = 91.59"] ;
296 -> 298 ;
299 [label="X[6] <= -0.522\nmse = 1.085\nsamples = 2\nvalue = 86.728"] ;
295 -> 299 ;
300 [label="mse = 0.0\nsamples = 1\nvalue = 85.687"] ;
299 -> 300 ;
301 [label="mse = 0.0\nsamples = 1\nvalue = 87.77"] ;
299 -> 301 ;
302 [label="X[3] <= 2.363\nmse = 38.776\nsamples = 9\nvalue = 86.114"] ;
290 -> 302 ;
303 [label="X[2] <= 0.488\nmse = 22.394\nsamples = 7\nvalue = 83.691"] ;
302 -> 303 ;
304 [label="X[3] <= 0.071\nmse = 4.897\nsamples = 5\nvalue = 86.411"] ;
303 -> 304 ;
305 [label="X[8] <= -0.266\nmse = 1.614\nsamples = 2\nvalue = 88.732"] ;
304 -> 305 ;
306 [label="mse = 0.0\nsamples = 1\nvalue = 87.461"] ;
305 -> 306 ;
307 [label="mse = 0.0\nsamples = 1\nvalue = 90.002"] ;
305 -> 307 ;
308 [label="X[7] <= 0.056\nmse = 1.101\nsamples = 3\nvalue = 84.864"] ;
304 -> 308 ;
309 [label="mse = 0.0\nsamples = 1\nvalue = 83.4"] ;
308 -> 309 ;
310 [label="X[2] <= 0.3\nmse = 0.044\nsamples = 2\nvalue = 85.595"] ;
308 -> 310 ;
311 [label="mse = 0.0\nsamples = 1\nvalue = 85.386"] ;
310 -> 311 ;
312 [label="mse = 0.0\nsamples = 1\nvalue = 85.805"] ;
310 -> 312 ;
313 [label="X[3] <= 0.959\nmse = 1.39\nsamples = 2\nvalue = 76.89"] ;
303 -> 313 ;
314 [label="mse = 0.0\nsamples = 1\nvalue = 78.069"] ;
313 -> 314 ;
315 [label="mse = 0.0\nsamples = 1\nvalue = 75.711"] ;
313 -> 315 ;
316 [label="X[0] <= -0.039\nmse = 3.623\nsamples = 2\nvalue = 94.595"] ;
302 -> 316 ;
317 [label="mse = 0.0\nsamples = 1\nvalue = 92.692"] ;
316 -> 317 ;
318 [label="mse = 0.0\nsamples = 1\nvalue = 96.499"] ;
316 -> 318 ;
319 [label="X[0] <= -0.019\nmse = 127.137\nsamples = 2\nvalue = 126.676"] ;
263 -> 319 ;
320 [label="mse = 0.0\nsamples = 1\nvalue = 137.951"] ;
319 -> 320 ;
321 [label="mse = -0.0\nsamples = 1\nvalue = 115.4"] ;
319 -> 321 ;
322 [label="X[8] <= -0.907\nmse = 189.033\nsamples = 19\nvalue = 110.917"] ;
208 -> 322 ;
323 [label="X[6] <= -0.849\nmse = 91.998\nsamples = 12\nvalue = 102.973"] ;
322 -> 323 ;
324 [label="X[6] <= -0.861\nmse = 9.213\nsamples = 3\nvalue = 88.409"] ;
323 -> 324 ;
325 [label="mse = 0.0\nsamples = 1\nvalue = 92.511"] ;
324 -> 325 ;
326 [label="X[0] <= 1.561\nmse = 1.199\nsamples = 2\nvalue = 86.358"] ;
324 -> 326 ;
327 [label="mse = 0.0\nsamples = 1\nvalue = 85.262"] ;
326 -> 327 ;
328 [label="mse = 0.0\nsamples = 1\nvalue = 87.452"] ;
326 -> 328 ;
329 [label="X[0] <= 1.477\nmse = 25.318\nsamples = 9\nvalue = 107.828"] ;
323 -> 329 ;
330 [label="X[1] <= 0.603\nmse = 7.146\nsamples = 7\nvalue = 109.71"] ;
329 -> 330 ;
331 [label="X[1] <= 0.594\nmse = 3.525\nsamples = 6\nvalue = 110.539"] ;
330 -> 331 ;
332 [label="X[0] <= 1.333\nmse = 1.14\nsamples = 4\nvalue = 109.364"] ;
331 -> 332 ;
333 [label="X[1] <= 0.586\nmse = 0.328\nsamples = 3\nvalue = 109.909"] ;
332 -> 333 ;
334 [label="X[7] <= -1.136\nmse = 0.0\nsamples = 2\nvalue = 110.314"] ;
333 -> 334 ;
335 [label="mse = 0.0\nsamples = 1\nvalue = 110.3"] ;
334 -> 335 ;
336 [label="mse = 0.0\nsamples = 1\nvalue = 110.328"] ;
334 -> 336 ;
337 [label="mse = -0.0\nsamples = 1\nvalue = 109.1"] ;
333 -> 337 ;
338 [label="mse = 0.0\nsamples = 1\nvalue = 107.726"] ;
332 -> 338 ;
339 [label="X[2] <= 0.301\nmse = 0.0\nsamples = 2\nvalue = 112.891"] ;
331 -> 339 ;
340 [label="mse = 0.0\nsamples = 1\nvalue = 112.882"] ;
339 -> 340 ;
341 [label="mse = 0.0\nsamples = 1\nvalue = 112.9"] ;
339 -> 341 ;
342 [label="mse = 0.0\nsamples = 1\nvalue = 104.736"] ;
330 -> 342 ;
343 [label="X[6] <= -0.817\nmse = 33.085\nsamples = 2\nvalue = 101.238"] ;
329 -> 343 ;
344 [label="mse = 0.0\nsamples = 1\nvalue = 95.486"] ;
343 -> 344 ;
345 [label="mse = -0.0\nsamples = 1\nvalue = 106.99"] ;
343 -> 345 ;
346 [label="X[8] <= -0.695\nmse = 61.752\nsamples = 7\nvalue = 124.534"] ;
322 -> 346 ;
347 [label="X[4] <= -0.749\nmse = 22.292\nsamples = 4\nvalue = 118.777"] ;
346 -> 347 ;
348 [label="mse = 0.0\nsamples = 1\nvalue = 111.262"] ;
347 -> 348 ;
349 [label="X[5] <= 1.221\nmse = 4.627\nsamples = 3\nvalue = 121.282"] ;
347 -> 349 ;
350 [label="X[0] <= 1.099\nmse = 1.071\nsamples = 2\nvalue = 119.883"] ;
349 -> 350 ;
351 [label="mse = 0.0\nsamples = 1\nvalue = 118.848"] ;
350 -> 351 ;
352 [label="mse = -0.0\nsamples = 1\nvalue = 120.918"] ;
350 -> 352 ;
353 [label="mse = -0.0\nsamples = 1\nvalue = 124.079"] ;
349 -> 353 ;
354 [label="X[6] <= -0.609\nmse = 11.232\nsamples = 3\nvalue = 132.211"] ;
346 -> 354 ;
355 [label="mse = 0.0\nsamples = 1\nvalue = 127.583"] ;
354 -> 355 ;
356 [label="X[5] <= -0.301\nmse = 0.782\nsamples = 2\nvalue = 134.526"] ;
354 -> 356 ;
357 [label="mse = 0.0\nsamples = 1\nvalue = 133.641"] ;
356 -> 357 ;
358 [label="mse = 0.0\nsamples = 1\nvalue = 135.41"] ;
356 -> 358 ;
359 [label="X[4] <= 0.979\nmse = 972.183\nsamples = 10\nvalue = 122.242"] ;
207 -> 359 ;
360 [label="X[6] <= -0.459\nmse = 94.53\nsamples = 7\nvalue = 102.852"] ;
359 -> 360 ;
361 [label="X[2] <= -0.889\nmse = 0.2\nsamples = 3\nvalue = 92.347"] ;
360 -> 361 ;
362 [label="X[5] <= -0.808\nmse = 0.019\nsamples = 2\nvalue = 92.652"] ;
361 -> 362 ;
363 [label="mse = 0.0\nsamples = 1\nvalue = 92.791"] ;
362 -> 363 ;
364 [label="mse = -0.0\nsamples = 1\nvalue = 92.514"] ;
362 -> 364 ;
365 [label="mse = -0.0\nsamples = 1\nvalue = 91.735"] ;
361 -> 365 ;
366 [label="X[4] <= 0.463\nmse = 20.434\nsamples = 4\nvalue = 110.731"] ;
360 -> 366 ;
367 [label="X[6] <= -0.203\nmse = 2.706\nsamples = 3\nvalue = 113.207"] ;
366 -> 367 ;
368 [label="X[8] <= 0.332\nmse = 0.362\nsamples = 2\nvalue = 112.097"] ;
367 -> 368 ;
369 [label="mse = 0.0\nsamples = 1\nvalue = 111.496"] ;
368 -> 369 ;
370 [label="mse = 0.0\nsamples = 1\nvalue = 112.699"] ;
368 -> 370 ;
371 [label="mse = -0.0\nsamples = 1\nvalue = 115.428"] ;
367 -> 371 ;
372 [label="mse = -0.0\nsamples = 1\nvalue = 103.3"] ;
366 -> 372 ;
373 [label="X[5] <= 1.199\nmse = 95.73\nsamples = 3\nvalue = 167.486"] ;
359 -> 373 ;
374 [label="mse = 0.0\nsamples = 1\nvalue = 180.44"] ;
373 -> 374 ;
375 [label="X[6] <= 1.366\nmse = 17.741\nsamples = 2\nvalue = 161.009"] ;
373 -> 375 ;
376 [label="mse = 0.0\nsamples = 1\nvalue = 165.221"] ;
375 -> 376 ;
377 [label="mse = -0.0\nsamples = 1\nvalue = 156.797"] ;
375 -> 377 ;
378 [label="X[0] <= 0.046\nmse = 95.506\nsamples = 31\nvalue = 77.479"] ;
206 -> 378 ;
379 [label="X[1] <= 0.881\nmse = 56.037\nsamples = 26\nvalue = 74.474"] ;
378 -> 379 ;
380 [label="X[6] <= -0.576\nmse = 31.431\nsamples = 15\nvalue = 78.625"] ;
379 -> 380 ;
381 [label="X[0] <= -1.488\nmse = 15.843\nsamples = 13\nvalue = 77.08"] ;
380 -> 381 ;
382 [label="X[0] <= -1.534\nmse = 12.887\nsamples = 2\nvalue = 82.547"] ;
381 -> 382 ;
383 [label="mse = 0.0\nsamples = 1\nvalue = 78.957"] ;
382 -> 383 ;
384 [label="mse = -0.0\nsamples = 1\nvalue = 86.137"] ;
382 -> 384 ;
385 [label="X[6] <= -0.713\nmse = 9.96\nsamples = 11\nvalue = 76.086"] ;
381 -> 385 ;
386 [label="X[1] <= 0.846\nmse = 4.238\nsamples = 7\nvalue = 74.225"] ;
385 -> 386 ;
387 [label="X[6] <= -0.78\nmse = 0.92\nsamples = 4\nvalue = 72.576"] ;
386 -> 387 ;
388 [label="X[4] <= -0.919\nmse = 0.173\nsamples = 2\nvalue = 73.428"] ;
387 -> 388 ;
389 [label="mse = 0.0\nsamples = 1\nvalue = 73.844"] ;
388 -> 389 ;
390 [label="mse = 0.0\nsamples = 1\nvalue = 73.012"] ;
388 -> 390 ;
391 [label="X[2] <= -0.279\nmse = 0.215\nsamples = 2\nvalue = 71.724"] ;
387 -> 391 ;
392 [label="mse = 0.0\nsamples = 1\nvalue = 71.261"] ;
391 -> 392 ;
393 [label="mse = -0.0\nsamples = 1\nvalue = 72.188"] ;
391 -> 393 ;
394 [label="X[5] <= -0.967\nmse = 0.207\nsamples = 3\nvalue = 76.423"] ;
386 -> 394 ;
395 [label="mse = 0.0\nsamples = 1\nvalue = 77.01"] ;
394 -> 395 ;
396 [label="X[8] <= -0.609\nmse = 0.053\nsamples = 2\nvalue = 76.13"] ;
394 -> 396 ;
397 [label="mse = 0.0\nsamples = 1\nvalue = 75.9"] ;
396 -> 397 ;
398 [label="mse = -0.0\nsamples = 1\nvalue = 76.359"] ;
396 -> 398 ;
399 [label="X[1] <= 0.855\nmse = 3.297\nsamples = 4\nvalue = 79.344"] ;
385 -> 399 ;
400 [label="X[0] <= -0.43\nmse = 0.472\nsamples = 3\nvalue = 80.334"] ;
399 -> 400 ;
401 [label="X[0] <= -0.826\nmse = 0.076\nsamples = 2\nvalue = 79.875"] ;
400 -> 401 ;
402 [label="mse = 0.0\nsamples = 1\nvalue = 80.15"] ;
401 -> 402 ;
403 [label="mse = -0.0\nsamples = 1\nvalue = 79.6"] ;
401 -> 403 ;
404 [label="mse = 0.0\nsamples = 1\nvalue = 81.253"] ;
400 -> 404 ;
405 [label="mse = 0.0\nsamples = 1\nvalue = 76.373"] ;
399 -> 405 ;
406 [label="X[6] <= 0.692\nmse = 16.455\nsamples = 2\nvalue = 88.664"] ;
380 -> 406 ;
407 [label="mse = 0.0\nsamples = 1\nvalue = 84.608"] ;
406 -> 407 ;
408 [label="mse = -0.0\nsamples = 1\nvalue = 92.721"] ;
406 -> 408 ;
409 [label="X[1] <= 1.146\nmse = 34.065\nsamples = 11\nvalue = 68.814"] ;
379 -> 409 ;
410 [label="X[0] <= -0.262\nmse = 8.642\nsamples = 9\nvalue = 71.264"] ;
409 -> 410 ;
411 [label="X[0] <= -0.9\nmse = 5.212\nsamples = 4\nvalue = 69.196"] ;
410 -> 411 ;
412 [label="mse = 0.0\nsamples = 1\nvalue = 72.621"] ;
411 -> 412 ;
413 [label="X[6] <= -0.793\nmse = 1.737\nsamples = 3\nvalue = 68.055"] ;
411 -> 413 ;
414 [label="mse = 0.0\nsamples = 1\nvalue = 66.409"] ;
413 -> 414 ;
415 [label="X[3] <= 1.18\nmse = 0.574\nsamples = 2\nvalue = 68.878"] ;
413 -> 415 ;
416 [label="mse = 0.0\nsamples = 1\nvalue = 68.12"] ;
415 -> 416 ;
417 [label="mse = 0.0\nsamples = 1\nvalue = 69.635"] ;
415 -> 417 ;
418 [label="X[5] <= -1.074\nmse = 5.232\nsamples = 5\nvalue = 72.918"] ;
410 -> 418 ;
419 [label="X[5] <= -1.111\nmse = 0.074\nsamples = 2\nvalue = 70.446"] ;
418 -> 419 ;
420 [label="mse = 0.0\nsamples = 1\nvalue = 70.718"] ;
419 -> 420 ;
421 [label="mse = 0.0\nsamples = 1\nvalue = 70.175"] ;
419 -> 421 ;
422 [label="X[2] <= -0.105\nmse = 1.886\nsamples = 3\nvalue = 74.565"] ;
418 -> 422 ;
423 [label="mse = 0.0\nsamples = 1\nvalue = 76.446"] ;
422 -> 423 ;
424 [label="X[2] <= -0.083\nmse = 0.175\nsamples = 2\nvalue = 73.625"] ;
422 -> 424 ;
425 [label="mse = 0.0\nsamples = 1\nvalue = 73.206"] ;
424 -> 425 ;
426 [label="mse = -0.0\nsamples = 1\nvalue = 74.043"] ;
424 -> 426 ;
427 [label="mse = 0.0\nsamples = 2\nvalue = 57.793"] ;
409 -> 427 ;
428 [label="X[2] <= 0.405\nmse = 9.766\nsamples = 5\nvalue = 93.101"] ;
378 -> 428 ;
429 [label="X[3] <= -0.044\nmse = 1.529\nsamples = 4\nvalue = 94.562"] ;
428 -> 429 ;
430 [label="mse = 0.0\nsamples = 1\nvalue = 96.071"] ;
429 -> 430 ;
431 [label="X[1] <= 0.933\nmse = 1.027\nsamples = 3\nvalue = 94.059"] ;
429 -> 431 ;
432 [label="mse = 0.0\nsamples = 1\nvalue = 92.695"] ;
431 -> 432 ;
433 [label="X[8] <= -0.467\nmse = 0.145\nsamples = 2\nvalue = 94.741"] ;
431 -> 433 ;
434 [label="mse = 0.0\nsamples = 1\nvalue = 94.36"] ;
433 -> 434 ;
435 [label="mse = 0.0\nsamples = 1\nvalue = 95.122"] ;
433 -> 435 ;
436 [label="mse = 0.0\nsamples = 1\nvalue = 87.255"] ;
428 -> 436 ;
}